ID	Embed_001	Embed_002	Embed_003	Embed_004	Embed_005	Embed_006	Embed_007	Embed_008	Embed_009	Embed_010	Embed_011	Embed_012	Embed_013	Embed_014	Embed_015	Embed_016	Embed_017	Embed_018	Embed_019	Embed_020	Embed_021	Embed_022	Embed_023	Embed_024	Embed_025	Embed_026	Embed_027	Embed_028	Embed_029	Embed_030	Embed_031	Embed_032	Embed_033	Embed_034	Embed_035	Embed_036	Embed_037	Embed_038	Embed_039	Embed_040	Embed_041	Embed_042	Embed_043	Embed_044	Embed_045	Embed_046	Embed_047	Embed_048	Embed_049	Embed_050	Embed_051	Embed_052	Embed_053	Embed_054	Embed_055	Embed_056	Embed_057	Embed_058	Embed_059	Embed_060	Embed_061	Embed_062	Embed_063	Embed_064	Embed_065	Embed_066	Embed_067	Embed_068	Embed_069	Embed_070	Embed_071	Embed_072	Embed_073	Embed_074	Embed_075	Embed_076	Embed_077	Embed_078	Embed_079	Embed_080	Embed_081	Embed_082	Embed_083	Embed_084	Embed_085	Embed_086	Embed_087	Embed_088	Embed_089	Embed_090	Embed_091	Embed_092	Embed_093	Embed_094	Embed_095	Embed_096	Embed_097	Embed_098	Embed_099	Embed_100	Embed_101	Embed_102	Embed_103	Embed_104	Embed_105	Embed_106	Embed_107	Embed_108	Embed_109	Embed_110	Embed_111	Embed_112	Embed_113	Embed_114	Embed_115	Embed_116	Embed_117	Embed_118	Embed_119	Embed_120	Embed_121	Embed_122	Embed_123	Embed_124	Embed_125	Embed_126	Embed_127	Embed_128	Embed_129	Embed_130	Embed_131	Embed_132	Embed_133	Embed_134	Embed_135	Embed_136	Embed_137	Embed_138	Embed_139	Embed_140	Embed_141	Embed_142	Embed_143	Embed_144	Embed_145	Embed_146	Embed_147	Embed_148	Embed_149	Embed_150	Embed_151	Embed_152	Embed_153	Embed_154	Embed_155	Embed_156	Embed_157	Embed_158	Embed_159	Embed_160	Embed_161	Embed_162	Embed_163	Embed_164	Embed_165	Embed_166	Embed_167	Embed_168	Embed_169	Embed_170	Embed_171	Embed_172	Embed_173	Embed_174	Embed_175	Embed_176	Embed_177	Embed_178	Embed_179	Embed_180	Embed_181	Embed_182	Embed_183	Embed_184	Embed_185	Embed_186	Embed_187	Embed_188	Embed_189	Embed_190	Embed_191	Embed_192	Embed_193	Embed_194	Embed_195	Embed_196	Embed_197	Embed_198	Embed_199	Embed_200	Embed_201	Embed_202	Embed_203	Embed_204	Embed_205	Embed_206	Embed_207	Embed_208	Embed_209	Embed_210	Embed_211	Embed_212	Embed_213	Embed_214	Embed_215	Embed_216	Embed_217	Embed_218	Embed_219	Embed_220	Embed_221	Embed_222	Embed_223	Embed_224	Embed_225	Embed_226	Embed_227	Embed_228	Embed_229	Embed_230	Embed_231	Embed_232	Embed_233	Embed_234	Embed_235	Embed_236	Embed_237	Embed_238	Embed_239	Embed_240	Embed_241	Embed_242	Embed_243	Embed_244	Embed_245	Embed_246	Embed_247	Embed_248	Embed_249	Embed_250	Embed_251	Embed_252	Embed_253	Embed_254	Embed_255	Embed_256	Embed_257	Embed_258	Embed_259	Embed_260	Embed_261	Embed_262	Embed_263	Embed_264	Embed_265	Embed_266	Embed_267	Embed_268	Embed_269	Embed_270	Embed_271	Embed_272	Embed_273	Embed_274	Embed_275	Embed_276	Embed_277	Embed_278	Embed_279	Embed_280	Embed_281	Embed_282	Embed_283	Embed_284	Embed_285	Embed_286	Embed_287	Embed_288	Embed_289	Embed_290	Embed_291	Embed_292	Embed_293	Embed_294	Embed_295	Embed_296	Embed_297	Embed_298	Embed_299	Embed_300	Embed_301	Embed_302	Embed_303	Embed_304	Embed_305	Embed_306	Embed_307	Embed_308	Embed_309	Embed_310	Embed_311	Embed_312	Embed_313	Embed_314	Embed_315	Embed_316	Embed_317	Embed_318	Embed_319	Embed_320	Embed_321	Embed_322	Embed_323	Embed_324	Embed_325	Embed_326	Embed_327	Embed_328	Embed_329	Embed_330	Embed_331	Embed_332	Embed_333	Embed_334	Embed_335	Embed_336	Embed_337	Embed_338	Embed_339	Embed_340	Embed_341	Embed_342	Embed_343	Embed_344	Embed_345	Embed_346	Embed_347	Embed_348	Embed_349	Embed_350	Embed_351	Embed_352	Embed_353	Embed_354	Embed_355	Embed_356	Embed_357	Embed_358	Embed_359	Embed_360	Embed_361	Embed_362	Embed_363	Embed_364	Embed_365	Embed_366	Embed_367	Embed_368	Embed_369	Embed_370	Embed_371	Embed_372	Embed_373	Embed_374	Embed_375	Embed_376	Embed_377	Embed_378	Embed_379	Embed_380	Embed_381	Embed_382	Embed_383	Embed_384	Embed_385	Embed_386	Embed_387	Embed_388	Embed_389	Embed_390	Embed_391	Embed_392	Embed_393	Embed_394	Embed_395	Embed_396	Embed_397	Embed_398	Embed_399	Embed_400	Embed_401	Embed_402	Embed_403	Embed_404	Embed_405	Embed_406	Embed_407	Embed_408	Embed_409	Embed_410	Embed_411	Embed_412	Embed_413	Embed_414	Embed_415	Embed_416	Embed_417	Embed_418	Embed_419	Embed_420	Embed_421	Embed_422	Embed_423	Embed_424	Embed_425	Embed_426	Embed_427	Embed_428	Embed_429	Embed_430	Embed_431	Embed_432	Embed_433	Embed_434	Embed_435	Embed_436	Embed_437	Embed_438	Embed_439	Embed_440	Embed_441	Embed_442	Embed_443	Embed_444	Embed_445	Embed_446	Embed_447	Embed_448	Embed_449	Embed_450	Embed_451	Embed_452	Embed_453	Embed_454	Embed_455	Embed_456	Embed_457	Embed_458	Embed_459	Embed_460	Embed_461	Embed_462	Embed_463	Embed_464	Embed_465	Embed_466	Embed_467	Embed_468	Embed_469	Embed_470	Embed_471	Embed_472	Embed_473	Embed_474	Embed_475	Embed_476	Embed_477	Embed_478	Embed_479	Embed_480	Embed_481	Embed_482	Embed_483	Embed_484	Embed_485	Embed_486	Embed_487	Embed_488	Embed_489	Embed_490	Embed_491	Embed_492	Embed_493	Embed_494	Embed_495	Embed_496	Embed_497	Embed_498	Embed_499	Embed_500	Embed_501	Embed_502	Embed_503	Embed_504	Embed_505	Embed_506	Embed_507	Embed_508	Embed_509	Embed_510	Embed_511	Embed_512	Embed_513	Embed_514	Embed_515	Embed_516	Embed_517	Embed_518	Embed_519	Embed_520	Embed_521	Embed_522	Embed_523	Embed_524	Embed_525	Embed_526	Embed_527	Embed_528	Embed_529	Embed_530	Embed_531	Embed_532	Embed_533	Embed_534	Embed_535	Embed_536	Embed_537	Embed_538	Embed_539	Embed_540	Embed_541	Embed_542	Embed_543	Embed_544	Embed_545	Embed_546	Embed_547	Embed_548	Embed_549	Embed_550	Embed_551	Embed_552	Embed_553	Embed_554	Embed_555	Embed_556	Embed_557	Embed_558	Embed_559	Embed_560	Embed_561	Embed_562	Embed_563	Embed_564	Embed_565	Embed_566	Embed_567	Embed_568	Embed_569	Embed_570	Embed_571	Embed_572	Embed_573	Embed_574	Embed_575	Embed_576	Embed_577	Embed_578	Embed_579	Embed_580	Embed_581	Embed_582	Embed_583	Embed_584	Embed_585	Embed_586	Embed_587	Embed_588	Embed_589	Embed_590	Embed_591	Embed_592	Embed_593	Embed_594	Embed_595	Embed_596	Embed_597	Embed_598	Embed_599	Embed_600	Embed_601	Embed_602	Embed_603	Embed_604	Embed_605	Embed_606	Embed_607	Embed_608	Embed_609	Embed_610	Embed_611	Embed_612	Embed_613	Embed_614	Embed_615	Embed_616	Embed_617	Embed_618	Embed_619	Embed_620	Embed_621	Embed_622	Embed_623	Embed_624	Embed_625	Embed_626	Embed_627	Embed_628	Embed_629	Embed_630	Embed_631	Embed_632	Embed_633	Embed_634	Embed_635	Embed_636	Embed_637	Embed_638	Embed_639	Embed_640	Embed_641	Embed_642	Embed_643	Embed_644	Embed_645	Embed_646	Embed_647	Embed_648	Embed_649	Embed_650	Embed_651	Embed_652	Embed_653	Embed_654	Embed_655	Embed_656	Embed_657	Embed_658	Embed_659	Embed_660	Embed_661	Embed_662	Embed_663	Embed_664	Embed_665	Embed_666	Embed_667	Embed_668	Embed_669	Embed_670	Embed_671	Embed_672	Embed_673	Embed_674	Embed_675	Embed_676	Embed_677	Embed_678	Embed_679	Embed_680	Embed_681	Embed_682	Embed_683	Embed_684	Embed_685	Embed_686	Embed_687	Embed_688	Embed_689	Embed_690	Embed_691	Embed_692	Embed_693	Embed_694	Embed_695	Embed_696	Embed_697	Embed_698	Embed_699	Embed_700	Embed_701	Embed_702	Embed_703	Embed_704	Embed_705	Embed_706	Embed_707	Embed_708	Embed_709	Embed_710	Embed_711	Embed_712	Embed_713	Embed_714	Embed_715	Embed_716	Embed_717	Embed_718	Embed_719	Embed_720	Embed_721	Embed_722	Embed_723	Embed_724	Embed_725	Embed_726	Embed_727	Embed_728	Embed_729	Embed_730	Embed_731	Embed_732	Embed_733	Embed_734	Embed_735	Embed_736	Embed_737	Embed_738	Embed_739	Embed_740	Embed_741	Embed_742	Embed_743	Embed_744	Embed_745	Embed_746	Embed_747	Embed_748	Embed_749	Embed_750	Embed_751	Embed_752	Embed_753	Embed_754	Embed_755	Embed_756	Embed_757	Embed_758	Embed_759	Embed_760	Embed_761	Embed_762	Embed_763	Embed_764	Embed_765	Embed_766	Embed_767	Embed_768
Chemical_1	0.12367651	-0.11629032	-0.32446206	-0.18631703	-0.018496538	-0.5798769	-0.52139634	-0.46623626	-0.93096995	-0.4698795	-0.2924448	0.8252312	0.27758428	0.26093936	-0.70899844	0.4292812	-0.043108292	0.4587949	-0.19007346	-0.56606144	-0.4661243	-0.40160188	0.2607954	1.0631098	-0.12960751	0.1850481	0.4647724	-0.08506679	0.27442643	-0.30357412	-0.5558914	0.0667302	1.2580007	-0.1880736	0.31000623	-0.12656718	-0.01343264	-0.15414603	-0.46911195	0.074890785	-0.40152735	-0.37033322	0.27957362	0.78640187	-0.27778724	0.104981914	0.53027946	-0.54081887	0.961517	0.27548024	-0.18959033	-0.18874936	-0.44746268	-0.30062085	0.59465677	0.61915267	-0.8881841	-0.72070086	0.7272004	-0.14841446	-0.09580312	0.03851639	-0.8303335	0.8694805	-0.7363423	-0.28892604	-1.00809	-0.7712627	0.4351469	0.6412032	-0.256738	-0.96679395	1.2117053	-0.38051003	0.5059135	0.033097386	0.17171927	0.5343695	0.56760246	0.49758714	-0.56357527	0.16118333	0.5138428	1.1534866	-1.126604	-0.18387203	-0.12257544	-0.4871892	-0.35052148	0.7820898	0.09940029	-0.93905216	0.09979423	1.1871818	0.51641977	0.83251894	-0.7392001	0.30546048	0.5423578	0.56190324	0.25964338	0.5969368	-0.763725	-0.0022506488	0.3580377	0.22031231	0.20660433	0.46920165	-0.010868276	0.122871995	-0.3459881	-0.45291117	-0.75964046	-0.029228695	0.10975069	-0.23672873	0.51784796	-0.033843603	0.6312807	-0.77822876	-0.56675225	0.10956327	-0.37645313	0.6918638	-0.43349457	0.34714615	0.031491205	-0.09960479	0.26470608	0.19076382	0.4100249	-0.39159843	0.12887618	0.29459476	-0.6346402	1.1310625	1.0564293	-0.0481224	0.15277351	-0.05365163	-0.50824004	0.39397338	-1.0718653	0.040372133	0.0692415	-0.10623926	0.92782074	-0.5127458	-0.45669603	0.24786563	0.16434075	-0.12793106	0.42083424	-0.47224852	0.9605151	-0.17098752	1.5035369	-0.018887332	-0.68032026	0.5215203	0.04731927	-0.84153	0.15018138	0.2134061	0.4549354	0.57257944	0.2106273	0.6134415	0.33625323	0.4866778	0.28956768	-0.22096786	-0.8775484	0.09068198	0.46041366	-0.052263718	-0.29664996	0.08805245	0.6989059	0.51524395	-0.39763057	0.314258	-1.0898502	0.6943868	0.1904849	-0.06804691	-0.27871472	-0.45334494	-0.7376192	-0.6817782	0.7455664	0.072175995	-0.19956967	-1.1700593	0.3387156	0.24640806	-0.55116093	-0.13564403	-0.084920466	0.5214558	-0.44056395	1.1633236	0.5686279	-0.11364967	-0.6430097	-0.31317422	-0.019131547	0.04288462	-0.20641102	-0.57503283	0.18919535	0.2542549	0.6130871	-0.021802872	0.9962879	-0.018738266	-0.30216157	-0.62618095	-0.71099603	-0.0016510581	-0.27592263	-0.33797124	1.2001475	0.6171243	-0.9289409	0.07159245	0.39059368	0.6825224	-1.308615	-0.20175189	1.0535431	-0.45464385	0.15212287	0.6265111	0.11320757	-0.36514327	-1.3241495	-0.80381113	0.33477548	-0.34064808	-0.05948675	-0.45058453	0.29833853	1.1123484	-0.27460667	-0.19781248	0.64010817	-0.040301275	-0.72174853	-0.52921015	-0.20668529	-0.13912754	0.17235962	-0.8111977	0.6761114	-0.6586376	-0.14060557	0.0925774	0.7409468	-0.26032367	0.74046993	-0.67059314	0.8980046	1.1635145	-0.628857	-0.51443374	-0.55849856	-0.5037756	-0.5037793	-0.027838308	-0.76723725	0.9903557	-0.3340469	-0.51682216	0.2774869	0.39661005	0.21577057	0.1943994	-0.064850494	0.8122597	-0.056132354	0.7562872	0.041766904	-0.22048797	1.331475	0.19572978	-0.6743415	-0.2291651	-0.4944646	0.4895541	-0.92695177	0.06782946	0.06283854	0.71369296	-0.4266116	0.37807128	-0.4386353	0.80737734	-0.25157365	-0.4932753	-0.45548782	-1.256666	1.061448	-1.0558989	1.2268761	-0.3369104	-0.40052345	-0.031263318	0.15061119	-0.24484572	-0.939449	0.38016823	0.14767192	0.53558207	0.19402875	-0.16299063	0.4564316	-0.0561377	1.15089	0.69097865	-0.78665024	-1.8325255	0.2816741	0.7752862	0.5975648	0.5792909	-0.60695606	0.36543748	0.017440218	0.23017979	-0.5429759	0.47506493	0.03739564	-0.5904954	-0.18551454	0.040428538	0.2823663	0.5450373	0.1276474	-0.035285074	-0.2531756	1.3362751	-0.41199803	1.0255336	0.5858291	-0.089794375	-0.038831677	0.7041786	0.12574491	-0.83707833	-0.045621432	-0.38930565	-0.07522723	-0.23397227	-1.3177379	-0.29971114	-0.11514194	0.4753017	0.61551833	-0.42459348	0.65399253	0.008817515	-0.17759997	-0.9986048	-0.315549	-0.6466599	-0.10654457	0.17823482	0.0703802	0.44972104	-0.61447734	0.64557344	-0.7062008	-0.20263568	-0.29356822	-0.91040653	-0.56904256	0.2683008	0.82762426	1.1519727	-0.6835403	-0.5930488	-0.8594544	0.3674869	-0.4687609	-0.019523283	0.8007631	0.8531953	0.21036874	-1.1634781	-0.12116003	-0.8327413	-0.53012353	0.21769783	-0.4579955	0.5273816	-0.08487079	1.3462027	0.18570445	0.1911021	-0.3293676	0.2977728	0.57422554	-0.47703722	-0.5060911	0.034155354	-0.13929078	0.22107227	-0.070194595	-0.66604304	-0.07257153	0.57176363	-0.5710597	-0.4196966	0.6180485	0.79942244	1.2242737	-0.13934152	0.77564317	-0.3025094	-1.008831	0.54353786	0.85489106	0.2191593	0.41207293	0.4678504	-0.8860564	0.24055067	-0.69083136	0.92367613	0.42565015	0.40050665	0.6348482	-0.4284659	0.035643976	-0.38182554	-0.7013402	0.6413171	0.060641106	-0.02638613	-0.7898124	-0.016561937	0.24971408	-0.120822504	-0.4877217	-0.038883224	0.626889	-0.5101608	0.14179197	-0.31558308	0.38849837	0.0835411	-0.5660158	0.6920579	0.27946153	-1.1364626	-0.28178287	0.7647697	-0.30261168	0.45706633	-0.6299615	-0.080287986	-0.8499648	0.6689872	0.085002586	-0.9802067	-0.5012337	-0.19856316	0.6799332	-0.5875444	-0.23480669	0.37803668	-0.45750374	-1.1837509	-0.47126073	-0.7387868	-0.03631199	-0.41119698	-0.3630636	0.05938623	-0.6343783	-0.18328929	-0.31715432	-0.76641965	0.28048086	0.4624972	-0.904764	-0.1602209	0.95119953	0.4310686	0.08899448	0.03275768	0.1587679	0.2004263	0.5131409	-0.46884924	0.0438117	0.2881529	0.3019215	0.9930491	0.009929895	0.98216856	0.028326334	-0.6197404	1.1687175	0.4561365	0.45471618	0.664009	-0.61781	0.027806023	-0.49128512	0.18810588	-0.08292448	-0.80692875	0.24889803	-0.52857405	0.53360766	0.6405246	-0.4209802	0.27315006	0.26958683	-0.44394687	-0.3050801	-0.39357108	0.015807288	-0.2929946	0.01143491	0.95848083	0.2900436	0.13307254	0.038043134	0.5436778	-0.23117785	1.0028278	-0.33996883	-0.7607711	-0.10005639	0.06876179	-0.13017936	-0.78134227	-0.057049938	-1.0356678	0.27001816	0.15536334	0.36197075	-0.83123237	-0.0763337	-0.7900264	0.94708586	-0.21111104	-0.26771823	0.3348831	-1.2668395	0.051036917	0.30228966	-0.5441094	-0.8231995	0.64927375	-0.8323768	-0.43760687	-0.88042974	0.20876457	-0.38990873	0.8715844	0.21154368	-0.05116489	0.35012227	0.17674804	0.21120241	0.2480663	0.14354102	-1.1866512	-0.43755487	-0.048294973	-0.03823195	0.97613025	0.16690016	-0.6577663	-0.25639224	-1.1246188	0.8091929	-0.37009367	-0.9112848	1.3699218	1.3587459	-0.04953714	0.7006008	-0.41694003	-0.014954792	-0.6225891	-0.472919	-0.33162144	0.44277388	-0.43918198	0.2436342	0.2909405	-1.4521254	0.36089018	0.72138655	0.7175253	0.59272873	-0.13025537	-0.24855378	0.57343984	-0.80365187	-0.015854055	-0.72477275	0.26969978	-0.39621478	-0.008313686	-0.60380125	-0.85861963	-0.3506293	-0.4045375	-0.68885946	0.0038007207	-1.3569939	-0.55020225	0.5472206	-0.25795457	-0.10977152	1.0428839	0.6317435	0.988188	-0.1541494	-0.74335074	-0.97300875	0.6248824	-0.5761943	-0.034849804	0.11621593	-0.03003473	0.3708257	0.28016272	1.5096581	-0.37456122	0.5192812	0.84701407	-0.6640556	-0.056058664	-0.42463455	-0.5032517	1.2078152	-0.029494692	-0.15560862	-1.1591936	0.025259772	0.029968314	0.4560523	-0.6179715	1.2694813	0.66029805	0.16107073	1.1312472	0.6268586	-0.043513373	-0.98908377	0.0030256463	-0.14867094	0.14103527	-0.92637116	0.080721796	0.20173669	1.2647122	0.1389939	0.5408187	-0.0121604325	-0.42330647	0.18271276	-0.09089571	-0.116905354	0.49920648	0.46469602	0.124526925	0.22180422	-0.20123243	-0.47248492	-0.3667761	1.4036659	0.69008124	0.5754449	0.12736385	0.830069	-0.23306316	-0.74850607	0.106145546	-0.23792072	0.6314202	-0.29646617	-0.28265622	0.8567266	-0.2290956	-0.90333784	-0.56945956	-0.27240553	0.77539134	0.15128954	-0.31100813	-0.03424383	1.3035846	-0.10578356	0.54361874	-0.5989076	0.311196	-0.15820801	0.020550149	0.35841966	-0.12776254	0.29853413	0.5183097	-0.6577629	1.0758842	-0.31353503	1.4774612	-0.1932955	0.08788322	-0.15383686	-0.3225812	-0.39273474	0.30551997	-0.79978293	0.44372326	-0.31457603	-1.0782833	-0.5519478	0.027922487	0.09639775	0.4072505	0.34563592	-0.34528387	-0.0055565704	0.83043945	-0.30944973	0.4888865	-0.6307427	-0.42616233	-0.2458953	0.23616046	0.25238404	-0.6125133	0.84177923	-0.45003605	-0.99303037	-0.4221379	0.35157835	0.27423522	-1.2283434	0.37940252	-0.13994758	-0.07797448	-0.12849654	0.53608775	-0.48762825	0.81526285	-0.0044921064	0.5310197	0.70632404	-0.49313536	-0.4706849	0.1931028	-0.31801075	-0.91812885	-0.12575339	0.56749386	-0.5119494	-0.36646107	-0.32301962	0.23642784
Chemical_2	0.3891056	0.2924397	-0.6126267	-0.39611652	-0.46015292	-0.9444019	-0.47745594	-0.24783275	-1.043325	-0.41597956	-0.011868627	0.7249215	0.26340592	-0.13826483	-0.63949746	-0.096816994	-0.18559058	0.41401273	0.6383144	0.35518909	-1.0289037	-0.40068308	-0.56233525	0.8541411	0.10660262	0.23259632	0.6594863	0.8222194	-0.5765235	-0.54687333	-0.9319562	-0.53408575	0.47732946	0.43405145	0.8315957	-0.068395816	-0.12630643	-0.39637244	-0.4621744	-0.6232818	-0.10623352	-1.192449	-0.6658099	1.393379	-0.09257418	0.28209147	-0.1160055	-1.3058883	0.7546705	0.50113285	-0.38387015	0.12650545	-0.22610074	-0.08677526	0.66330636	0.52602535	-0.81660575	-0.87743926	1.0278884	0.734673	-0.3277056	0.47328442	-0.9001744	1.3092741	-0.5852642	-0.650679	-0.5112807	-0.38506812	0.8189785	0.5002005	-0.45095915	-1.6671717	1.4788219	-0.51685375	0.5143911	0.40451843	-0.2321125	0.50012153	-0.039075132	1.1587882	0.16027912	0.60404795	0.5745882	1.2888194	-0.60820967	0.5502705	0.5680544	-0.6118372	0.0553062	0.73098683	0.17423008	-0.97528905	0.35690752	0.99085253	0.33087787	0.77150464	-0.4982825	-0.27032807	0.9816288	0.29290923	0.28850493	0.40956673	-0.80229187	0.4657151	0.54161984	0.6337246	-0.23262782	0.44289902	-0.036769226	-0.1920878	-0.8760615	-0.15919326	-0.7135885	-0.09038961	-0.029542554	-0.45227778	0.5967646	-0.010389274	0.74414265	-0.19493356	-0.67453825	-0.52457577	-0.84109133	0.9974626	-0.41395488	0.50553584	0.054400302	-0.70682013	0.08902307	0.2353874	0.46161783	-0.5555791	0.36229908	0.6124132	-0.15076922	0.90766966	0.75601375	-0.092121124	-0.60719615	-0.5087099	-0.19741692	0.61538833	-0.8134276	0.5903898	0.013037228	-0.49240342	1.3404807	-1.0284071	0.27624965	-0.15099113	0.031832784	-0.24846472	0.509378	-0.3838971	1.330987	-0.70947915	1.7452873	-0.27321535	-1.2915164	0.27908194	0.3622361	-0.5996843	0.16172431	0.5550763	0.69076616	0.8370378	0.26010925	0.4630545	0.5588362	0.49178898	-0.22443858	0.09154812	-0.247657	0.17613198	0.13776839	0.64415795	-0.36426717	-0.22958153	0.5455112	0.121253684	-0.4115714	0.6796498	-1.1122926	0.31546012	-0.27693114	-1.010278	0.4223889	-0.82719535	-0.4958909	-0.5668057	0.3418534	-0.21661228	-0.1506699	-1.1354544	0.46475628	0.5483743	-0.31005058	0.10501458	0.53917664	0.44001395	-0.43115896	0.9845944	0.7685238	-0.45190263	-0.5124834	-0.095434934	-0.17310564	-0.10816469	-0.12221261	-0.73700273	-0.15676142	-0.15560268	0.1948346	-0.37535504	1.0333558	-0.12461656	0.26049086	-1.0216111	-0.64928705	0.5383922	0.34963718	-0.09082438	1.5927948	0.33292928	-0.5475867	0.8996231	1.7748641	0.4080885	-1.1270107	-0.3073469	1.0901853	-0.5079893	0.44331	0.71770006	-0.14264911	-0.36999506	-0.91151994	-0.7651153	0.6292525	-0.3387992	0.08080019	-1.0013864	-0.18190701	1.7140702	-0.23147899	-0.6052128	0.43932053	0.2138177	-0.9147689	-0.9292635	-0.3691098	-0.34555438	1.1349661	-0.8492994	0.41836134	-1.5831107	0.07610148	-0.77964926	1.3138139	-0.24522613	0.75307834	-0.68027985	1.0224068	1.1118164	-0.2559322	-0.02845701	-0.65283495	-0.881744	-0.6900087	1.0676274	-0.6605926	0.4528976	-0.2847125	-0.2041882	0.5611265	0.14850086	-0.59612215	0.37541208	0.054704502	0.7130153	0.025275981	0.42928976	-0.22500764	-0.095080696	0.8823176	0.7292119	-0.77762455	-0.5969657	-0.61011463	0.8400685	-0.77689236	-0.39001283	-0.08282392	0.8552675	0.2755243	0.33692655	-0.508548	0.7737452	0.46298742	-0.14429621	0.099757574	-0.79168546	1.9473094	-1.455788	0.28802887	-0.2883368	-0.41099247	-0.2326464	0.7601434	-0.034224316	-0.94098085	0.91614497	0.0913695	0.47627252	-0.023804288	0.0071788733	-0.053151473	-0.15225722	0.9695903	0.84239066	-0.44248483	-1.7414205	0.13604754	0.669222	0.49772066	1.1918458	-0.82070786	-0.064914614	0.76296914	0.17296018	-0.55323285	-0.19830944	-0.31708136	-0.95671546	-0.40519452	-0.33447242	0.2490866	0.31338105	-0.14663318	-0.2900692	0.25115556	0.69175434	0.052242473	0.26798117	0.61741686	0.018977573	0.3831851	0.9281216	-0.060226765	-0.6758753	0.31704038	-0.26993605	-0.8548494	0.16485165	-1.0133789	-0.36813846	0.2078261	0.3863058	0.22143291	-0.4353833	0.03756205	-0.04762886	0.0062531787	-0.8006541	-0.6738395	-0.95781076	0.9255906	0.18428321	-0.2659413	0.64581686	-0.59644085	0.3903068	-0.7063364	0.17423926	-0.12808488	-0.38592786	-0.45465073	-0.51935285	1.0201602	0.7429187	-0.9599782	-0.083536126	-0.8849647	1.1424916	-0.4960762	-0.07783774	0.4402456	0.43991426	0.320261	-1.5108936	0.6634848	-0.85780215	-1.4399966	0.628854	-0.29186046	0.90072393	0.5754248	0.90955645	-0.18404692	0.03872433	-0.4723447	0.5562744	0.37171808	-0.82500887	-0.795594	-0.5614223	-0.39295733	-0.25840217	0.07373435	-0.7861073	0.45473328	0.9188427	-0.8466227	-0.80727816	0.5681059	0.7340787	1.0239873	-0.0075652017	0.99892044	0.49656484	-1.1504918	0.21799873	1.1502246	0.57780576	-0.29207465	0.322046	-1.4542501	0.4194548	-0.7294941	1.3143957	0.5768274	-0.1118309	0.5680506	-0.7266025	0.33111215	-0.6564916	-1.1472559	1.1628162	0.32889396	-0.077275716	-0.34473085	0.5343228	0.7482744	-0.13889478	-0.731948	-0.7647086	0.6065979	-0.19399516	-0.7158889	0.30193418	-0.06472619	0.63587147	-0.88696134	0.19830763	0.51665044	-0.6139843	-0.026896581	1.0103703	-0.41572624	0.33895248	-0.3583972	-0.8242405	-1.5132576	0.70325667	-0.29248	-0.64486253	-0.12221317	0.75176233	0.41000924	-0.6247277	-0.28217027	0.86474115	-0.18665954	-1.0092968	-0.21277048	-0.55126506	0.16424076	-0.03135166	-0.20697457	0.02057394	-0.33869857	-0.51682913	-0.23160835	-0.9170583	0.00902797	0.2683946	-0.91413814	0.46175167	0.582291	0.6250377	0.010272302	0.07423967	-0.60656786	0.19136755	0.700573	-0.34074175	0.90193045	-0.10737382	0.1613033	0.57898617	-0.2929315	1.6070786	0.22677834	-0.44752237	1.567569	0.2889212	0.72295254	0.8270389	-0.16919214	0.23572175	-0.85054475	0.707736	-0.37858942	-1.0741701	0.71904796	-1.141441	1.2081769	0.7290069	-0.18330477	0.07350617	-0.16737306	-1.4543425	0.6048463	-0.3304603	0.26884672	-0.62262267	-0.2374869	0.30891562	1.0050199	0.037939005	-0.39113936	0.81910425	0.25759774	1.1587021	-0.23676088	-0.51311445	-0.27963704	0.41802028	0.06160902	-0.2585501	0.3580453	-0.54192877	-0.26758045	0.022924986	0.07921974	-0.790727	0.079605885	-1.0103819	0.6191975	-0.25653628	-0.15301076	0.6326418	-1.4823241	0.2818559	0.1624199	-0.22294244	-1.417419	0.31759804	-0.6996014	0.016079074	-0.99758095	0.3252722	0.35845935	0.4381094	0.030829605	-0.18822545	-0.018272914	-0.090318814	0.8370732	-0.6433663	-0.46529636	-0.8814367	-0.35776445	-0.84579444	-0.47581324	0.9642763	-0.6766139	-0.29402238	-0.33679476	-1.0805861	0.60211223	-0.2411255	-0.67128503	1.3233228	1.1852146	-0.8113294	0.37564424	-1.0381656	0.22138432	-0.9667668	-1.2190078	-0.4351681	0.21041764	-0.35357517	0.0637472	0.80924386	-1.2852722	0.06980139	1.1579195	0.0056268866	0.550528	-0.34082723	-0.80971336	1.3579522	-0.75483716	-0.36066124	-0.70829755	0.3737959	-0.29870299	0.013296281	0.15325372	-0.9194765	-0.4872232	-0.70285136	-1.4038526	0.10839019	-1.4614828	-0.47346798	0.4787305	-0.5803261	-0.16043046	1.0975505	0.42405218	1.0233592	0.48363924	-0.70516473	-1.231882	0.7914223	-0.65511835	-0.49268308	0.20108405	-0.35765997	0.64374083	-0.16636592	1.0905697	-0.27772397	1.125243	1.1498474	0.03240549	0.017505756	-0.48485026	-0.88588786	0.50517535	-0.045366008	0.18912674	-1.5581232	0.028846178	0.0918179	-0.13308214	-1.0723512	2.1555676	0.7647413	-0.57645375	0.85794765	0.94375443	-0.21077575	-1.0710604	-0.45519096	-0.09433273	-0.08524674	-1.4074726	0.22851045	0.76446486	1.5911819	0.5393256	0.9419687	-0.5210548	-0.9658113	0.117754124	0.19422576	-0.16011621	0.6074334	0.032174837	-0.49091688	0.158205	-0.80654174	-0.79935104	-0.39159822	1.1672246	0.9949527	0.66049534	0.5212016	0.1403937	-0.8392616	-0.29710734	0.24443163	0.04662604	0.5810637	-0.49779096	-0.72862303	0.6819746	-0.26235268	-0.7890627	-0.8792852	-0.36353824	0.86298484	0.53157	-0.48248264	-0.18692143	1.2430589	0.23970789	0.34427512	-0.60750175	0.6244309	-0.35618597	-0.031459562	0.7340655	-0.62807024	0.50568616	0.70292646	-0.60988104	1.8227389	0.12407427	1.7122102	0.078099556	1.0892135	-0.4935689	0.20886394	0.047138378	0.6999418	-0.73450583	0.6447384	0.044360276	-1.5336962	0.090447254	-0.08812447	-0.73297817	0.8757801	-0.41402388	-0.83037865	0.169266	0.9086452	-0.43711326	1.0957724	-0.7269034	-0.36511543	0.3709223	-0.026158357	0.5015166	-1.728526	0.69433165	-0.07417428	-0.90023184	-0.77847517	0.73631334	0.19363645	-0.77736884	1.0090455	-0.68483764	0.05262742	-0.5499568	0.9460812	-0.16055684	0.4597156	-0.53599834	1.0172877	0.8586879	-0.357018	0.027804937	-0.4631465	0.25551906	-1.176879	-0.021508541	0.30595016	-0.11616932	-0.5537933	-0.39411086	0.63094413
Chemical_3	0.2843466	0.26112357	-0.54455084	-0.32825014	-0.29429	-0.7951051	-0.5081439	-0.1986493	-1.1562084	-0.44805676	0.13650255	0.7647555	0.21934171	0.1278264	-0.7462079	-0.045002736	-0.16443336	0.46482047	0.688979	0.32208145	-1.0544214	-0.49067286	-0.49814415	0.9653882	0.013850355	0.25382918	0.75986236	0.608273	-0.5758265	-0.49879414	-0.7035604	-0.576809	0.6417492	0.36164713	0.84676164	0.010510851	-0.10603146	-0.32351163	-0.51592153	-0.39448187	-0.14068401	-1.1921841	-0.43699953	1.5080446	-0.023195058	0.43712822	-0.05820906	-1.0164664	0.67731607	0.40932655	-0.37491944	0.28946906	0.042091127	-0.10585062	0.6920816	0.7662269	-0.6407263	-0.6783523	0.90012443	0.53613186	-0.31790385	0.37314767	-0.9681131	1.185198	-0.64592683	-0.71657485	-0.5599739	-0.46895742	0.67205787	0.7236175	-0.5882246	-1.4486285	1.4258106	-0.42217988	0.2800046	0.4536062	-0.07103357	0.527716	-0.016104061	1.0188576	-0.21114086	0.47358146	0.65010405	1.3236278	-0.5138738	0.5733228	0.32535776	-0.78392977	0.10321045	0.6728693	0.10054241	-0.9633608	0.28506196	0.9978658	0.32973877	0.87429255	-0.51038814	-0.20273548	0.69408184	0.2931604	0.41704085	0.5357152	-0.7128236	0.48534915	0.585656	0.58639705	-0.1563268	0.48479092	-0.0494106	-0.2564845	-0.893547	-0.2848413	-0.7902588	-0.2151748	-0.11031353	-0.42700267	0.57617813	0.05866951	0.9332441	-0.05527451	-0.36086422	-0.5641534	-0.96187705	0.9362017	-0.46140474	0.4180555	-0.04369703	-0.6215377	0.12134226	0.20490511	0.28250167	-0.3930454	0.34265384	0.7149108	-0.14981587	0.7944752	0.86429465	-0.16405448	-0.68030024	-0.4486026	-0.34902635	0.6121999	-0.7911183	0.45502186	-0.0040580155	-0.36707684	1.3973786	-0.8204082	0.19565104	-0.12819195	0.08892284	-0.20912956	0.5027744	-0.45312515	1.3534364	-0.76246285	1.7659479	-0.09156217	-1.1420459	0.41949764	0.23475865	-0.8283236	0.11422483	0.40060264	0.56618196	0.6877993	0.32871237	0.40556937	0.46650532	0.27807167	0.08831862	-0.07995649	-0.3408502	0.18560286	0.25785828	0.6797131	-0.30568025	-0.014649905	0.43396673	0.03354885	-0.28854918	0.5178972	-1.1068736	0.2695368	-0.2599169	-1.0225009	0.41198993	-0.894173	-0.45600766	-0.64125896	0.43475726	-0.25323316	-0.07885738	-1.009916	0.64344245	0.52463025	-0.45596272	0.1369303	0.5225946	0.40420887	-0.47608066	1.029735	0.5286023	-0.4249034	-0.38487208	-0.16440846	-0.11490913	-0.2658161	-0.18969646	-0.7100265	-0.042135328	-0.17969336	0.29583576	-0.28604943	1.124762	0.08279995	0.40328598	-1.1708494	-0.76481533	0.27350906	0.51302475	-0.105670765	1.4549503	0.056235757	-0.62239265	0.8446063	1.4090191	0.3448981	-1.1106324	-0.13103352	0.89372087	-0.3829882	0.5834043	0.63353735	-0.13878618	-0.4725431	-0.99786687	-0.6100131	0.83597136	-0.32013243	-0.08815366	-0.9530833	-0.119869314	1.7652555	-0.35571882	-0.4269378	0.42706016	0.18318579	-0.8825678	-0.7424966	-0.4501078	-0.46632197	0.88491684	-0.8313686	0.45666215	-1.5719981	0.04207971	-0.68772554	1.4313482	-0.2980748	0.7242571	-0.67342657	1.0338274	1.0797765	-0.32606807	-0.09563028	-0.65532035	-1.0062178	-0.8687803	0.92092687	-0.59326607	0.5460741	-0.12684919	-0.32677424	0.74214685	0.11259508	-0.6983454	0.29533085	0.097347684	0.5667028	0.15714008	0.46350074	-0.09794108	-0.16881424	1.0242821	0.69513774	-0.7770503	-0.5802713	-0.72600836	0.79809666	-0.57407653	-0.23941495	-0.107872866	0.8143528	0.18359067	0.25582147	-0.45351338	0.75990367	0.06960596	-0.058823798	-0.018643156	-0.93535745	1.7910187	-1.411412	0.51921445	-0.4229884	-0.47251654	-0.050371226	0.85940886	0.0070219864	-0.9813234	0.8385578	0.21609072	0.26939085	0.16222793	-0.035356585	-0.17220102	-0.18751028	0.87896717	0.9506041	-0.4003581	-1.6573265	-0.08758802	0.5535637	0.40629655	1.170144	-0.81662977	-0.05790283	0.6733153	0.05356829	-0.69409686	-0.30738282	-0.2599299	-1.1550543	-0.4119658	-0.36295247	0.15678994	0.35524032	-0.320573	-0.18178582	0.18454733	0.7354883	0.05949995	0.41941342	0.5515531	0.07836195	0.43876687	0.88400966	-0.3337087	-0.6826296	0.30522934	-0.2763776	-0.77197075	-0.06012485	-1.0164028	-0.43929446	0.05436734	0.40120924	0.21804066	-0.34747246	-0.113064356	-0.038342264	-0.19149138	-0.7491784	-0.78036	-0.98331857	0.81647265	0.31218153	-0.1760607	0.78694904	-0.6699634	0.29015246	-0.6983876	0.36426827	-0.31349838	-0.51711607	-0.59086907	-0.33050796	0.97587144	0.7349814	-1.0331118	-0.3050804	-0.8185854	0.95237744	-0.61634195	-0.09834856	0.37620768	0.47992098	0.23122586	-1.488771	0.5163551	-0.5846911	-1.1137114	0.42923903	-0.366288	0.9018473	0.45163226	0.8319707	-0.055297256	-0.0207193	-0.6228542	0.43081582	0.3122162	-0.8996132	-0.8577667	-0.6553334	-0.35131407	-0.26822317	-0.02073952	-0.8236028	0.4616276	0.7376086	-0.8976699	-0.73189634	0.59711665	0.58488375	0.9600148	0.07375061	0.7508985	0.4013375	-1.1933805	0.2522083	1.0633793	0.5795811	-0.10744164	0.40284067	-1.2436984	0.3629089	-0.8191818	1.3939521	0.62831306	0.11516361	0.6653904	-0.7547842	0.17628959	-0.7192179	-1.150998	1.0741311	0.30022135	-0.1782676	-0.26575923	0.61784065	0.6376624	-0.0015577988	-0.7085581	-0.587844	0.58418447	-0.107525826	-0.5683121	0.24010758	0.12032547	0.6973364	-0.70891	0.1983867	0.5631987	-0.5604808	0.007542623	0.89080954	-0.43382424	0.44405323	-0.4329524	-0.6625556	-1.3558179	0.6511886	-0.44732997	-0.6612066	-0.2774693	0.7109341	0.5222425	-0.68671197	-0.26161498	0.7783803	-0.216799	-1.1510686	-0.38078687	-0.51515234	0.17135377	0.013173068	-0.39151886	0.10932078	-0.20717785	-0.23593882	-0.19573727	-0.81081843	-0.14069135	0.21659644	-0.7261205	0.41197625	0.63118297	0.57277346	-0.03418847	0.17470022	-0.50544584	0.37495056	0.72134846	-0.5574118	0.73602897	0.0023592908	0.347141	0.6530139	-0.3338516	1.5012335	0.08011501	-0.396816	1.5753791	0.417263	0.61561334	0.8517392	-0.21732418	0.314595	-0.7876547	0.7215051	-0.3380585	-1.0324402	0.8812215	-1.119551	1.218877	0.72147745	-0.31606063	0.068119876	0.014939881	-1.585658	0.2876737	-0.19420014	0.3294493	-0.48747757	-0.07579972	0.4332729	1.0239015	0.10918206	-0.5275521	0.8545593	0.042288586	1.1767977	-0.31932127	-0.48199207	-0.2837492	0.26638696	0.14723507	-0.44399008	0.15483063	-0.64135504	-0.18921101	-0.08674262	-0.013917163	-0.977203	0.10057983	-1.1463976	0.70290375	-0.11099264	-0.34424955	0.4787231	-1.2325716	0.33871287	0.20269594	-0.22478908	-1.3061259	0.29296145	-0.8327417	0.17242453	-0.9220158	0.3426776	0.42718747	0.42726254	-0.08325932	-0.20712174	0.106193945	-0.13966359	0.7863391	-0.41981807	-0.4604682	-0.990599	-0.284028	-0.5831423	-0.58274424	0.9656962	-0.51715857	-0.47339568	-0.49541873	-1.0898262	0.7998715	-0.11989582	-0.55394554	1.3592284	1.0628042	-0.789614	0.36837336	-0.9019877	0.03951288	-1.030668	-0.9987674	-0.42125088	0.4044733	-0.2284035	-0.014526671	0.80745417	-1.303591	-0.025811553	0.9964258	0.09776566	0.55532306	-0.30454648	-0.35560662	1.4233775	-0.80357313	-0.38892886	-0.81660163	0.36876252	-0.09927647	-0.12679535	0.04753679	-0.92624134	-0.5828532	-0.8592222	-1.4135972	0.06761558	-1.3886707	-0.46493134	0.552921	-0.5223427	-0.031601254	1.0997534	0.45363048	1.1147802	0.38195735	-0.5585368	-1.1971276	0.88550645	-0.6661163	-0.21871632	0.15748212	-0.34358227	0.6122892	-0.14652036	1.2398019	-0.38545445	1.2096336	0.9688522	0.08659082	-0.04690265	-0.6331745	-0.8370838	0.6901644	0.07116523	0.027753538	-1.6144571	0.14448479	-0.014257016	0.027091414	-1.0737745	2.0663822	0.5643991	-0.7034858	0.87965983	0.99103326	-0.31302997	-0.85616416	-0.41450393	0.029370341	-0.1630264	-1.1454266	0.2792815	0.7543101	1.6117325	0.46155602	0.75248706	-0.36574826	-0.7236969	0.17087087	0.30915713	-0.092402436	0.41953987	-0.25084177	-0.4442321	0.2576957	-0.85125923	-0.76236624	-0.29676968	1.1784387	0.965714	0.78893656	0.45511743	0.30449408	-0.89792556	-0.34326267	0.40069637	-0.0023641184	0.69924766	-0.56036365	-0.47357014	0.60632855	-0.17402317	-0.8150499	-0.71753246	-0.5055017	0.8099968	0.6781397	-0.40475836	-0.044641607	1.2631464	0.10190689	0.36895132	-0.6158188	0.7054071	-0.10947357	0.06332583	0.7273481	-0.42654985	0.5198849	0.67687815	-0.5317829	1.762825	0.002508632	1.8542776	0.053018298	0.98186785	-0.43826786	0.15594327	-0.019503713	0.7632492	-0.6716644	0.65384537	0.13439338	-1.6528131	-0.015758295	0.024868507	-0.7270192	0.7133504	-0.2965459	-0.8968571	0.070260465	1.0072929	-0.4479209	1.095576	-0.7131517	-0.26392317	0.2952415	0.14477392	0.51596177	-1.7318624	0.75860196	-0.12212218	-1.0636421	-0.73307014	0.6767153	-0.007991764	-0.92187935	0.9824894	-0.79478824	0.12120388	-0.60388947	0.7985739	-0.25017667	0.4114707	-0.4250293	0.94566286	0.88434327	-0.2081863	0.19392623	-0.33026326	0.14120346	-1.1125233	-0.1379506	0.44265124	-0.19958177	-0.47865865	-0.49442574	0.57877284
